-4.809999999999995486e-04
4.009999999999996640e-04
2.800000000000044004e-05
4.479999999999999933e-04
-1.199999999999941924e-05
1.380000000000002915e-04
-4.839999999999989168e-04
3.799999999999980558e-05
-1.949999999999997796e-04
7.549999999999993782e-04
-2.269999999999998798e-04
4.229999999999999819e-04
6.770000000000008433e-04
1.099999999999966429e-05
-1.679999999999998281e-04
-9.400000000000080763e-05
1.249999999999999484e-04
-6.240000000000009645e-04
-2.890000000000000858e-04
-2.170000000000003686e-04
-5.399999999999925937e-05
1.450000000000001364e-04
4.960000000000009974e-04
-7.890000000000000962e-04
1.249999999999997587e-04
-2.459999999999989864e-04
3.499999999999984786e-05
4.779999999999988251e-04
5.489999999999996836e-04
-2.910000000000006765e-04
-2.980000000000001962e-04
2.399999999999997621e-04
-6.119999999999993718e-04
-2.400000000000028182e-05
5.789999999999995454e-04
3.400000000000021657e-05
1.340000000000000858e-04
-5.309999999999997881e-04
3.719999999999994470e-04
1.810000000000000627e-04
9.100000000000096510e-05
-1.410000000000001205e-04
5.799999999999987837e-05
-3.630000000000013424e-04
2.790000000000003306e-04
-9.400000000000002971e-04
-4.669999999999985578e-04
-5.470000000000014781e-04
8.400000000000071364e-05
2.929999999999996409e-04
-6.179999999999996260e-04
1.123999999999999999e-03
6.379999999999991364e-04
5.139999999999994833e-04
1.450000000000008682e-04
1.449999999999998653e-04
9.900000000000008619e-04
-4.960000000000015395e-04
-4.080000000000005931e-04
2.050000000000000769e-04
-5.960000000000008260e-04
9.499999999999982905e-05
-6.579999999999996225e-04
-8.000000000000011496e-05
-4.609999999999998214e-04
-1.849999999999998347e-04
-3.200000000000010562e-04
1.869999999999982841e-04
1.730000000000006001e-04
1.249999999999999755e-04
4.820000000000001150e-04
-7.199999999999996117e-05
-1.270000000000001325e-04
5.879999999999997642e-04
3.899999999999970114e-05
-2.270000000000004761e-04
-1.169999999999997946e-04
2.379999999999999033e-04
4.480000000000003728e-04
8.830000000000003211e-04
-5.079999999999996628e-04
-9.599999999999998888e-05
2.719999999999995100e-04
-5.510000000000007080e-04
-2.990000000000003289e-04
-4.200000000000087181e-05
-2.369999999999994995e-04
-1.140000000000004400e-04
5.899999999999998128e-04
-1.319999999999996849e-04
-5.410000000000002481e-04
-5.500000000000005752e-04
-4.259999999999998380e-04
3.740000000000005256e-04
-4.240000000000007110e-04
-4.410000000000000400e-04
-3.209999999999996710e-04
3.620000000000005592e-04
-4.239999999999994099e-04
-5.790000000000003044e-04
